-0.6701766599923648 -1.5053856721163328 -0.7701534116442668 -0.5977415718064026 0.3507856974583774 0.77174815077864 -0.43530726518546253 0.9374975745188886 1.779834990423279 -0.7931374887271722 -1.5661723618343235 -0.5487846304943894 0.5951342150125942 -0.13879761062711793 -0.8815044815354411 0.2336333782354478 0.9208783783862612 0.19973154179989264 1.4342769667744402 -0.8114847625152299 -0.4014783514797021 1.3921563824837027 0.9779482359514843 1.3709443479820105 -1.9460235878583514 -0.419089923336076 -1.6768721891996647
-0.29912736346889135 0.3280706077563198 0.23670964769756728 0.5915205994810064 -0.08908784846786592 -1.7078869446306846 0.6541649696870194 0.2292994117431339 0.7321179470346977 -0.08018199374100424 0.04161601679776486 -1.230330809047855 0.048829760437450846 1.1906381192811815 -0.3105068377791266 0.41282943297583313 0.9619816905156591 0.7727207736034905 0.026978754636788106 0.6087002389835816 1.447913939167012 0.1470595259715059 0.584673349186111 -1.9820824371176753 -0.46657067580094136 -0.9087207345716967 -0.5530436794277235
0.5554024588042955 -0.8527921889560245 -1.061452182371252 -0.175511405908684 -0.18019882614262792 0.5588195890827774 0.3443826440596136 -1.1968313705367615 0.270122404119279 -0.5383519710555859 -0.18883424501134294 1.857442479844624 -0.9636550001715738 0.6429614722687189 -1.000413961340896 1.219672266735929 1.6292036831920282 1.278221925945179 -0.3020216452702882 0.7069221673846552 1.734501857148349 -1.0781601651610369 -1.4336703330185103 -1.867310922684658 -1.9621355853282552 1.227029300129631 0.3340851006180186
-0.2841585204112951 -1.7435756539681917 -0.4137207265546867 1.2532429125641267 0.14036899400899444 1.0821624266372611 -1.006655229886071 0.4921385704190148 -0.9619693324974059 -1.0824341439616745 -2.4195661314167785 -0.5000787668304307 0.1467164255947631 -0.006441842983639166 0.8378485346082132 -0.1327475399313178 1.2631705744240216 1.8172830423489341 -0.6645039157525515 0.6898149571199085 -0.11701556232768026 0.23074784424490036 0.8024438571550658 0.414125595830403 0.6513710610654517 -0.2220592570615627 -0.38462571084561953
0.21273836995655424 0.8505864233538838 0.38024578860987523 -0.5040932719396668 0.040572379184302586 -1.4110131701765236 2.0303122555531963 0.5555612698907515 1.5020930034032693 -0.9844112652166017 0.6069876922423555 0.39992604138044946 0.6472893665807548 0.06721570639408296 1.6284792111244892 -0.12828578700220145 -1.8686166243945526 -0.9422209150038976 -1.2830556898138594 0.5501548663546929 1.6324900840483105 -0.20427801857032585 -1.3673660290777208 -0.3751795758011005 -0.14816855182099106 -0.2564858180995737 1.001644267990423
-1.1094540681951426 -0.7201227487163704 -0.5785943569925064 0.44822135156338333 1.292957123378914 1.3546541569083235 0.1694950811023932 -0.5370213349442762 -1.2483123989096014 -0.6673150809290593 0.5986677711807488 1.3250808167241792 -0.5923864673549684 -0.007599285049062469 0.9682854838222473 0.43294262881373413 1.8481439353380071 0.13784382187315466 1.1748251604591229 -1.2134241175383766 -0.6177563935528334 -0.4402818087946553 2.9294940715159794 0.6327887882676508 0.5601261398350915 -0.1433759487033715 -0.048359914829236204
0.07779270592049232 -1.9742978305259693 -0.5576351127310819 0.016078507086382737 0.8578938718588094 -0.08916419715282964 -0.42804460798709165 1.767708095649601 0.3532803310092742 0.3949275920078169 0.22176565479613103 -0.24828315820991237 -0.7731670307849401 0.0776806428576478 -0.04284854846493524 -0.2788875070785793 -0.3973685707624022 0.7685080295307214 0.51135949087057 1.8868691875085823 2.8757089935046785 -0.33979369776221574 -1.422205849241436 0.8688692192006346 1.3400330069576543 -1.1057486437477997 2.779785647761256
-0.08721643753138783 -0.3373600886609594 -1.560984836594529 0.10571851867894848 -0.003763512539298089 0.29255803891596494 -0.4823575658414621 -0.9159042390978528 1.215669900149777 0.23977281999061115 -0.2940959762421876 0.012824116168799459 0.15590203856677415 -0.48524578697951054 1.1607545098292775 1.6100480797514691 -0.1157268404047603 0.022577585791887105 0.3144145527784332 -1.5519261851379675 1.290142854001473 -1.9888711519208873 -2.350017291818048 -0.4728935232144833 0.4844252354434071 0.8247183129836089 0.1606092042606039
-0.2418987312360926 0.1210091124753856 1.7435485803073942 1.1064440414413617 -0.0165653411411322 1.7931263235448793 -0.1649481252679207 -1.5726239211339876 -1.069865069493495 -0.3301448420160341 -0.03761493466979365 0.014679776056845121 1.0962007176081066 0.23539433890599684 -1.6426917964395054 -0.969589172284933 0.8052061182710646 -2.2714037427124785 0.372907326995622 0.033393984415165605 1.7617630133328543 -0.9758320022954758 -1.7936224979772573 0.4359463387428507 -1.3702789511917708 1.7999833031184622 1.3622804710643448
1.5654043834277562 -2.037615774000536 -1.1862469156394873 0.19196407451501393 -0.6922605871950771 0.49493035162777416 -0.20100523546648302 0.5645452636105334 1.2045884298994054 -0.19613648066529646 1.7998900469575927 1.5305183726877238 -0.5595239531008541 0.5328516949538126 -0.755086121359395 -0.3447804504779466 1.7041159931520147 1.8589860326932133 1.2289138735214318 0.6668172948136873 2.921465745720789 -1.7075811474388336 -0.9426172964353009 -0.4458438244030983 0.14853130819394253 1.3573056745729801 3.653219369869935
-0.20103976447661231 0.5013922749305751 0.16810058980010317 -0.3360889245821628 -1.076067249384578 -0.6115525535255618 -0.4334141846670584 -0.11397819442176713 1.052455123963739 1.1710853421551117 -0.11095995896363015 -0.520887776493073 1.012396373848056 0.2894225925433254 -1.6173213520017988 -2.2023817529295524 -1.0278628219519526 1.3923092430930588 -0.19201480609030733 0.363491365085701 -0.7885063064951688 -2.1862935720797454 -0.30275290103102764 -1.7642279645017624 0.6673966930467269 0.061088243948445906 -0.2718368667563484
-1.3305981350317095 1.366606905535389 0.3455565636919155 1.033314864294986 -0.8871557741133371 -0.01284362495490427 0.8874999814448781 0.5842988979025074 1.0107430032100637 -1.3521722714555966 -1.859546961616811 -0.7851914312957995 1.4522995145188886 0.5872557786642534 -0.03568713811981934 -2.316857447452136 0.792712706948079 0.6208902809141329 -1.3745114915016228 0.13221553090663177 1.3467687414697478 2.470084722975128 0.08590400397423792 0.09262981115637724 0.44830044660991564 1.0047607965878775 -1.2223059962605916
-1.0285428940943404 -0.057643983783566916 0.45269567535011274 -1.6757927199634945 1.2662889553510392 0.16580001445780682 -1.3742972146905896 0.48653981610850017 -0.5399480962573983 0.06134832210767384 1.9404746094511498 0.6433600994884854 -0.7341466637653049 0.6859358182693143 -1.288200420040355 -0.8530756122812152 -1.2252594978246238 -0.9067551982551989 0.3283787550700476 0.3197572676628814 -1.1599456234775065 0.1799409993735672 0.19886754741094625 0.3933326794217754 -0.3496741996328189 -0.16160074024152216 -1.4531083694956064
-0.3564992304363638 0.09045923436507192 -0.9673151567105198 0.0525058395691515 1.2108398787581607 0.042863189968905036 -1.3632709848971374 -0.3003693229583105 -1.8295546485971717 2.815909652845339 -0.17631055264818 1.4422464928580687 1.3228487659125516 0.5409829520424574 -0.9206653610214358 -1.007408151814308 -0.4373056534061588 0.02832748189141838 0.6641650819596631 -0.5764428759487341 -0.7822954224383486 -0.5124339542874796 1.9985380095234972 -1.5200221160824756 0.022084226997492688 -1.0539008188607188 -1.5666856646158838
1.9246152127295795 0.04976445056970531 -1.7222299637173497 0.4744772920064335 -0.43942625196117835 -0.13169343925087723 -1.2011805612140818 -1.0373061106942223 -0.9512275167488945 -1.2540412559782954 -0.14470846916401442 0.7867020426447797 0.34000361961140124 0.1490181941196794
0.11296091295222928 0.036450463127083284 -1.4204647984683545 0.6483796358599914 -0.5625541205226963 -0.7807864811048075 0.2316289763326586 1.8185963377880645 -0.501468663743032 -1.8443153688536449 0.16289404996004414 -0.0797595361311966 -0.11600058408944017 0.16771794580846602
1.339342854179007
